3 100
sentence -0.00053622725 0.00023643016 0.0051033497 0.009009273 -0.0093029495 -0.007116809 0.0064588715 0.008972988 -0.005015428 -0.003763373 0.0073805046 -0.0015334726 -0.0045366143 0.0065540504 -0.0048601604 -0.0018160177 0.0028765798 0.0009918738 -0.008285215 -0.009448819 0.007311766 0.005070262 0.0067576934 0.00076286553 0.0063508893 -0.0034053659 -0.00094640255 0.0057685734 -0.0075216386 -0.003936105 -0.007511582 -0.00093004224 0.009538119 -0.007319167 -0.0023337698 -0.0019377422 0.008077435 -0.005930896 4.5161247e-05 -0.004753735 -0.009603551 0.005007293 -0.008759587 -0.0043918253 -3.5099984e-05 -0.00029618264 -0.00766124 0.009614741 0.0049820566 0.009233143 -0.008157918 0.004495797 -0.0041370774 0.0008245349 0.008498618 -0.004462178 0.0045175003 -0.0067869616 -0.0035484887 0.009398508 -0.0015776539 0.00032137157 -0.00414063 -0.007682688 -0.0015080094 0.0024697948 -0.0008880281 0.0055336617 -0.002742977 0.0022600652 0.0054557943 0.008345952 -0.0014537406 -0.009208143 0.004370551 0.00057178497 0.0074419067 -0.0008132839 -0.0026384138 -0.008753009 -0.0008565569 0.002826562 0.005401428 0.0070526553 -0.005703123 0.0018588186 0.006088862 -0.0047980524 -0.0031072616 0.0067976285 0.0016314745 0.00018991709 0.0034736372 0.0002177763 0.009618826 0.005060604 -0.008917391 -0.0070415614 0.0009014559 0.006392534
second -0.0086196875 0.003665738 0.0051898835 0.005741937 0.007466917 -0.0061676763 0.0011056137 0.0060472824 -0.0028400517 -0.0061735227 -0.000410223 -0.00836895 -0.005600014 0.0071045374 0.0033525396 0.0072256685 0.0068002464 0.007530742 -0.0037891555 -0.00056180713 0.0023483753 -0.0045190332 0.008388732 -0.009858165 0.006764641 0.0029144168 -0.004932833 0.004398186 -0.0017395759 0.006711383 0.00996485 -0.004362445 -0.000599339 -0.0056956387 0.0038508223 0.0027866268 0.0068910765 0.0061010956 0.009538496 0.009273417 0.007898068 -0.006989505 -0.009155865 -0.0003557539 -0.003099842 0.007894316 0.005938573 -0.0015456629 0.0015109634 0.0017900396 0.007817571 -0.009510188 -0.00020553112 0.0034691954 -0.00093897345 0.008381772 0.009010782 0.006536505 -0.00071162224 0.007710404 -0.008534336 0.0032071066 -0.004637997 -0.0050889566 0.0035896183 0.005370338 0.007769513 -0.0057665063 0.0074333595 0.006625495 -0.0037098003 -0.008745641 0.0054374672 0.006509755 -0.0007875514 -0.006709857 -0.0070859264 -0.0024970602 0.0051432536 -0.0036652375 -0.00937006 0.0038267397 0.004884479 -0.0064285635 0.0012085581 -0.0020748782 2.4402141e-05 -0.009883509 0.0026920033 -0.0047501065 0.0010876465 -0.0015762257 0.002196672 -0.007881577 -0.002717185 0.0026631975 0.005346682 -0.0023915148 -0.009510095 0.0045058774
first 9.456396e-05 0.0030773187 -0.0068126465 -0.0013754654 0.007668581 0.0073464084 -0.0036732983 0.0026427007 -0.00831713 0.0062054847 -0.0046373224 -0.003164108 0.009311357 0.0008733845 0.0074907015 -0.006074064 0.005160506 0.009922821 -0.0084573915 -0.0051356913 -0.0070648384 -0.0048626517 -0.003778565 -0.008536201 0.007955606 -0.004843938 0.008423612 0.0052625705 -0.006550026 0.00395787 0.0054701497 -0.007426536 -0.0074057197 -0.0024752307 -0.008625727 -0.0015815735 -0.00040343284 0.0032996845 0.0014418793 -0.00088142155 -0.005594058 0.0017303658 -0.0008973718 0.00679369 0.003973589 0.0045294715 0.0014343048 -0.0026998566 -0.0043668128 -0.0010320758 0.0014370275 -0.00264601 -0.007073784 -0.007805307 -0.009121788 -0.0059351707 -0.0018474245 -0.0043238713 -0.0064606713 -0.0037173224 0.004289157 -0.0037390448 0.008378174 0.0015339922 -0.0072423196 0.0094337985 0.007631211 0.005493281 -0.0068488456 0.0058226776 0.0040090918 0.005185368 0.0042559 0.0019397545 -0.0031701636 0.008353843 0.009612178 0.003792603 -0.002836995 7.126331e-06 0.0012188172 -0.008458326 -0.008223946 -0.00023101569 0.0012372875 -0.005743382 -0.004725275 -0.0073460746 0.008328614 0.00012129784 -0.0045093987 0.005701704 0.009180014 -0.004099872 0.00796468 0.005375433 0.005879123 0.0005125904 0.008213084 -0.0070190406
